digraph Tree {
node [shape=box, style="rounded", color="black", fontname=helvetica] ;
edge [fontname=helvetica] ;
0 [label="actual <= 62.5\nmse = 145.7\nsamples = 162\nvalue = 62.7"] ;
1 [label="actual <= 49.5\nmse = 40.4\nsamples = 78\nvalue = 52.4"] ;
0 -> 1 [labeldistance=2.5, labelangle=45, headlabel="True"] ;
2 [label="actual <= 42.5\nmse = 12.3\nsamples = 22\nvalue = 43.7"] ;
1 -> 2 ;
3 [label="actual <= 39.5\nmse = 0.5\nsamples = 8\nvalue = 40.0"] ;
2 -> 3 ;
4 [label="mse = 0.0\nsamples = 2\nvalue = 39.0"] ;
3 -> 4 ;
5 [label="actual <= 40.5\nmse = 0.2\nsamples = 6\nvalue = 40.4"] ;
3 -> 5 ;
6 [label="mse = 0.0\nsamples = 3\nvalue = 40.0"] ;
5 -> 6 ;
7 [label="mse = 0.0\nsamples = 3\nvalue = 41.0"] ;
5 -> 7 ;
8 [label="actual <= 47.0\nmse = 3.3\nsamples = 14\nvalue = 46.4"] ;
2 -> 8 ;
9 [label="actual <= 45.5\nmse = 0.7\nsamples = 8\nvalue = 45.1"] ;
8 -> 9 ;
10 [label="actual <= 44.5\nmse = 0.2\nsamples = 4\nvalue = 44.4"] ;
9 -> 10 ;
11 [label="mse = 0.0\nsamples = 2\nvalue = 44.0"] ;
10 -> 11 ;
12 [label="mse = 0.0\nsamples = 2\nvalue = 45.0"] ;
10 -> 12 ;
13 [label="mse = 0.0\nsamples = 4\nvalue = 46.0"] ;
9 -> 13 ;
14 [label="day <= 14.5\nmse = 0.2\nsamples = 6\nvalue = 48.5"] ;
8 -> 14 ;
15 [label="mse = 0.0\nsamples = 3\nvalue = 49.0"] ;
14 -> 15 ;
16 [label="mse = 0.0\nsamples = 3\nvalue = 48.0"] ;
14 -> 16 ;
17 [label="actual <= 56.0\nmse = 11.8\nsamples = 56\nvalue = 55.7"] ;
1 -> 17 ;
18 [label="actual <= 52.5\nmse = 2.7\nsamples = 29\nvalue = 53.1"] ;
17 -> 18 ;
19 [label="actual <= 51.5\nmse = 0.5\nsamples = 10\nvalue = 51.2"] ;
18 -> 19 ;
20 [label="actual <= 50.5\nmse = 0.2\nsamples = 6\nvalue = 50.7"] ;
19 -> 20 ;
21 [label="mse = 0.0\nsamples = 2\nvalue = 50.0"] ;
20 -> 21 ;
22 [label="mse = 0.0\nsamples = 4\nvalue = 51.0"] ;
20 -> 22 ;
23 [label="mse = 0.0\nsamples = 4\nvalue = 52.0"] ;
19 -> 23 ;
24 [label="actual <= 54.5\nmse = 0.6\nsamples = 19\nvalue = 54.2"] ;
18 -> 24 ;
25 [label="actual <= 53.5\nmse = 0.2\nsamples = 9\nvalue = 53.7"] ;
24 -> 25 ;
26 [label="mse = 0.0\nsamples = 2\nvalue = 53.0"] ;
25 -> 26 ;
27 [label="mse = 0.0\nsamples = 7\nvalue = 54.0"] ;
25 -> 27 ;
28 [label="mse = 0.0\nsamples = 10\nvalue = 55.0"] ;
24 -> 28 ;
29 [label="actual <= 58.5\nmse = 2.1\nsamples = 27\nvalue = 59.3"] ;
17 -> 29 ;
30 [label="actual <= 57.5\nmse = 0.2\nsamples = 7\nvalue = 57.2"] ;
29 -> 30 ;
31 [label="mse = 0.0\nsamples = 5\nvalue = 57.0"] ;
30 -> 31 ;
32 [label="mse = 0.0\nsamples = 2\nvalue = 58.0"] ;
30 -> 32 ;
33 [label="actual <= 60.5\nmse = 0.9\nsamples = 20\nvalue = 60.0"] ;
29 -> 33 ;
34 [label="actual <= 59.5\nmse = 0.2\nsamples = 15\nvalue = 59.6"] ;
33 -> 34 ;
35 [label="mse = 0.0\nsamples = 5\nvalue = 59.0"] ;
34 -> 35 ;
36 [label="mse = 0.0\nsamples = 10\nvalue = 60.0"] ;
34 -> 36 ;
37 [label="actual <= 61.5\nmse = 0.2\nsamples = 5\nvalue = 61.5"] ;
33 -> 37 ;
38 [label="mse = 0.0\nsamples = 3\nvalue = 61.0"] ;
37 -> 38 ;
39 [label="mse = 0.0\nsamples = 2\nvalue = 62.0"] ;
37 -> 39 ;
40 [label="actual <= 73.5\nmse = 46.3\nsamples = 84\nvalue = 72.6"] ;
0 -> 40 [labeldistance=2.5, labelangle=-45, headlabel="False"] ;
41 [label="actual <= 69.0\nmse = 9.9\nsamples = 50\nvalue = 67.8"] ;
40 -> 41 ;
42 [label="actual <= 65.5\nmse = 3.6\nsamples = 34\nvalue = 66.0"] ;
41 -> 42 ;
43 [label="actual <= 63.5\nmse = 0.7\nsamples = 17\nvalue = 63.9"] ;
42 -> 43 ;
44 [label="mse = 0.0\nsamples = 7\nvalue = 63.0"] ;
43 -> 44 ;
45 [label="actual <= 64.5\nmse = 0.2\nsamples = 10\nvalue = 64.5"] ;
43 -> 45 ;
46 [label="mse = 0.0\nsamples = 6\nvalue = 64.0"] ;
45 -> 46 ;
47 [label="mse = 0.0\nsamples = 4\nvalue = 65.0"] ;
45 -> 47 ;
48 [label="actual <= 67.5\nmse = 0.7\nsamples = 17\nvalue = 67.3"] ;
42 -> 48 ;
49 [label="actual <= 66.5\nmse = 0.2\nsamples = 7\nvalue = 66.4"] ;
48 -> 49 ;
50 [label="mse = 0.0\nsamples = 4\nvalue = 66.0"] ;
49 -> 50 ;
51 [label="mse = 0.0\nsamples = 3\nvalue = 67.0"] ;
49 -> 51 ;
52 [label="mse = 0.0\nsamples = 10\nvalue = 68.0"] ;
48 -> 52 ;
53 [label="actual <= 71.5\nmse = 1.0\nsamples = 16\nvalue = 71.7"] ;
41 -> 53 ;
54 [label="temp_2 <= 77.0\nmse = 0.1\nsamples = 8\nvalue = 70.9"] ;
53 -> 54 ;
55 [label="mse = 0.0\nsamples = 7\nvalue = 71.0"] ;
54 -> 55 ;
56 [label="mse = 0.0\nsamples = 1\nvalue = 70.0"] ;
54 -> 56 ;
57 [label="actual <= 72.5\nmse = 0.2\nsamples = 8\nvalue = 72.8"] ;
53 -> 57 ;
58 [label="mse = 0.0\nsamples = 2\nvalue = 72.0"] ;
57 -> 58 ;
59 [label="mse = 0.0\nsamples = 6\nvalue = 73.0"] ;
57 -> 59 ;
60 [label="actual <= 81.5\nmse = 19.4\nsamples = 34\nvalue = 79.3"] ;
40 -> 60 ;
61 [label="actual <= 78.0\nmse = 5.8\nsamples = 28\nvalue = 77.2"] ;
60 -> 61 ;
62 [label="actual <= 75.5\nmse = 1.0\nsamples = 17\nvalue = 75.2"] ;
61 -> 62 ;
63 [label="actual <= 74.5\nmse = 0.2\nsamples = 12\nvalue = 74.5"] ;
62 -> 63 ;
64 [label="mse = 0.0\nsamples = 5\nvalue = 74.0"] ;
63 -> 64 ;
65 [label="mse = 0.0\nsamples = 7\nvalue = 75.0"] ;
63 -> 65 ;
66 [label="day <= 11.0\nmse = 0.2\nsamples = 5\nvalue = 76.4"] ;
62 -> 66 ;
67 [label="mse = 0.0\nsamples = 3\nvalue = 76.0"] ;
66 -> 67 ;
68 [label="mse = 0.0\nsamples = 2\nvalue = 77.0"] ;
66 -> 68 ;
69 [label="actual <= 79.5\nmse = 0.7\nsamples = 11\nvalue = 79.6"] ;
61 -> 69 ;
70 [label="mse = 0.0\nsamples = 5\nvalue = 79.0"] ;
69 -> 70 ;
71 [label="month <= 5.5\nmse = 0.2\nsamples = 6\nvalue = 80.5"] ;
69 -> 71 ;
72 [label="mse = 0.0\nsamples = 3\nvalue = 81.0"] ;
71 -> 72 ;
73 [label="mse = 0.0\nsamples = 3\nvalue = 80.0"] ;
71 -> 73 ;
74 [label="actual <= 84.5\nmse = 7.7\nsamples = 6\nvalue = 85.6"] ;
60 -> 74 ;
75 [label="day <= 23.5\nmse = 0.2\nsamples = 3\nvalue = 82.2"] ;
74 -> 75 ;
76 [label="mse = 0.0\nsamples = 2\nvalue = 82.0"] ;
75 -> 76 ;
77 [label="mse = 0.0\nsamples = 1\nvalue = 83.0"] ;
75 -> 77 ;
78 [label="actual <= 88.5\nmse = 2.0\nsamples = 3\nvalue = 87.4"] ;
74 -> 78 ;
79 [label="week_Mon <= 0.5\nmse = 0.2\nsamples = 2\nvalue = 86.7"] ;
78 -> 79 ;
80 [label="mse = 0.0\nsamples = 1\nvalue = 87.0"] ;
79 -> 80 ;
81 [label="mse = 0.0\nsamples = 1\nvalue = 86.0"] ;
79 -> 81 ;
82 [label="mse = 0.0\nsamples = 1\nvalue = 90.0"] ;
78 -> 82 ;
}